<?xml version="1.0"?>
<opencv_storage>
<opencv_ml_nbayes>
  <format>3</format>
  <var_count>4</var_count>
  <var_all>4</var_all>
  <cls_labels type_id="opencv-matrix">
    <rows>3</rows>
    <cols>1</cols>
    <dt>i</dt>
    <data>
      0 1 2</data></cls_labels>
  <count>
    <_ type_id="opencv-matrix">
      <rows>1</rows>
      <cols>4</cols>
      <dt>i</dt>
      <data>
        35 35 35 35</data></_>
    <_ type_id="opencv-matrix">
      <rows>1</rows>
      <cols>4</cols>
      <dt>i</dt>
      <data>
        35 35 35 35</data></_>
    <_ type_id="opencv-matrix">
      <rows>1</rows>
      <cols>4</cols>
      <dt>i</dt>
      <data>
        35 35 35 35</data></_></count>
  <sum>
    <_ type_id="opencv-matrix">
      <rows>1</rows>
      <cols>4</cols>
      <dt>d</dt>
      <data>
        1.7659999990463257e+002 1.2140000033378601e+002
        5.1700000047683716e+001 8.4000001475214958e+000</data></_>
    <_ type_id="opencv-matrix">
      <rows>1</rows>
      <cols>4</cols>
      <dt>d</dt>
      <data>
        2.1029999971389771e+002 9.6900000572204590e+001
        1.5099999976158142e+002 4.6999999761581421e+001</data></_>
    <_ type_id="opencv-matrix">
      <rows>1</rows>
      <cols>4</cols>
      <dt>d</dt>
      <data>
        2.3159999990463257e+002 1.0279999971389771e+002
        1.9690000009536743e+002 6.9199999213218689e+001</data></_></sum>
  <productsum>
    <_ type_id="opencv-matrix">
      <rows>4</rows>
      <cols>4</cols>
      <dt>d</dt>
      <data>
        8.9553999858856264e+002 6.1604000087738041e+002
        2.6133000020503999e+002 4.2890000620335343e+001
        6.1604000087738041e+002 4.2586000222206138e+002
        1.7928000077724457e+002 2.9630000710934404e+001
        2.6133000020503999e+002 1.7928000077724457e+002
        7.7390000257492090e+001 1.2570000247955322e+001
        4.2890000620335343e+001 2.9630000710934404e+001
        1.2570000247955322e+001 2.3800000813603401e+000</data></_>
    <_ type_id="opencv-matrix">
      <rows>4</rows>
      <cols>4</cols>
      <dt>d</dt>
      <data>
        1.2732899967765813e+003 5.8548000249385836e+002
        9.1346999760150914e+002 2.8430999819278719e+002
        5.8548000249385836e+002 2.7175000295639052e+002
        4.2097000148773191e+002 1.3166000000476836e+002
        9.1346999760150914e+002 4.2097000148773191e+002
        6.5905999778747582e+002 2.0551999872207639e+002
        2.8430999819278719e+002 1.3166000000476836e+002
        2.0551999872207639e+002 6.4699999332428007e+001</data></_>
    <_ type_id="opencv-matrix">
      <rows>4</rows>
      <cols>4</cols>
      <dt>d</dt>
      <data>
        1.5489999965667732e+003 6.8465999747753153e+002
        1.3158699989604950e+003 4.5950999436616900e+002
        6.8465999747753153e+002 3.0609999814033517e+002
        5.8155999809741979e+002 2.0486999700546264e+002
        1.3158699989604950e+003 5.8155999809741979e+002
        1.1202100001716619e+003 3.9131999541997908e+002
        4.5950999436616900e+002 2.0486999700546264e+002
        3.9131999541997908e+002 1.3935999695301064e+002</data></_></productsum>
  <avg>
    <_ type_id="opencv-matrix">
      <rows>1</rows>
      <cols>4</cols>
      <dt>d</dt>
      <data>
        5.0457142829895023e+000 3.4685714381081718e+000
        1.4771428585052491e+000 2.4000000421489989e-001</data></_>
    <_ type_id="opencv-matrix">
      <rows>1</rows>
      <cols>4</cols>
      <dt>d</dt>
      <data>
        6.0085714203970770e+000 2.7685714449201311e+000
        4.3142857074737551e+000 1.3428571360451835e+000</data></_>
    <_ type_id="opencv-matrix">
      <rows>1</rows>
      <cols>4</cols>
      <dt>d</dt>
      <data>
        6.6171428544180735e+000 2.9371428489685059e+000
        5.6257142884390694e+000 1.9771428346633910e+000</data></_></avg>
  <inv_eigen_values>
    <_ type_id="opencv-matrix">
      <rows>4</rows>
      <cols>1</cols>
      <dt>d</dt>
      <data>
        4.1505753121803499e+000 2.3438243632123790e+001
        4.7667627821300130e+001 1.2478386222090366e+002</data></_>
    <_ type_id="opencv-matrix">
      <rows>4</rows>
      <cols>1</cols>
      <dt>d</dt>
      <data>
        1.9771265624898822e+000 1.2012853804208227e+001
        1.7235584117173328e+001 9.6648523572398432e+001</data></_>
    <_ type_id="opencv-matrix">
      <rows>4</rows>
      <cols>1</cols>
      <dt>d</dt>
      <data>
        1.1682235192921941e+000 9.2272487660090743e+000
        1.6259391960335670e+001 4.2492582538756068e+001</data></_></inv_eigen_values>
  <cov_rotate_mats>
    <_ type_id="opencv-matrix">
      <rows>4</rows>
      <cols>4</cols>
      <dt>d</dt>
      <data>
        6.8966108461844999e-001 7.1717403908312016e-001
        4.2412974267423562e-002 9.0720039913447625e-002
        -5.1645821474841780e-001 5.4657513951387626e-001
        -6.5309864007745089e-001 -8.9379503317306444e-002
        -5.0749212428498736e-001 4.2027684641348434e-001
        7.2621359070786851e-001 1.9604320143435658e-001
        -9.4997142320913941e-003 -1.0141196625313316e-001
        -2.1042130741433865e-001 9.7229020457691662e-001</data></_>
    <_ type_id="opencv-matrix">
      <rows>4</rows>
      <cols>4</cols>
      <dt>d</dt>
      <data>
        6.9339069945532417e-001 3.1813864409890985e-001
        6.0689191444255564e-001 2.2288863861581945e-001
        -7.0633836889770896e-001 2.7567527332688035e-001
        5.1624983310117389e-001 3.9821522085686767e-001
        -1.1441594021753288e-002 -8.7125171434006499e-001
        4.8815018362386858e-001 -4.9989383010021149e-002
        1.4200188892412863e-001 -2.5241116668355851e-001
        -3.5619897843093823e-001 8.8839538170804366e-001</data></_>
    <_ type_id="opencv-matrix">
      <rows>4</rows>
      <cols>4</cols>
      <dt>d</dt>
      <data>
        7.3681950656851825e-001 2.1922290952373441e-001
        6.3074364519208959e-001 1.0583375987778917e-001
        -1.6694777772631261e-001 7.8479838545219016e-001
        -1.7355968718540363e-001 5.7104900725593233e-001
        -4.1553896385895067e-001 -4.1718065222901424e-001
        5.2769109379592061e-001 6.1223343787257245e-001
        5.0651043796490625e-001 -4.0248368108205129e-001
        -5.4183170686327053e-001 5.3653747691365927e-001</data></_></cov_rotate_mats>
  <c type_id="opencv-matrix">
    <rows>1</rows>
    <cols>3</cols>
    <dt>d</dt>
    <data>
      -1.3268451629525259e+001 -1.0585678806696761e+001
      -8.9156454050529952e+000</data></c></opencv_ml_nbayes>
</opencv_storage>
