<?xml version="1.0"?>
<opencv_storage>
<opencv_ml_ann_mlp>
  <format>3</format>
  <layer_sizes>
    4 5 3</layer_sizes>
  <activation_function>GAUSSIAN</activation_function>
  <f_param1>1.</f_param1>
  <f_param2>1.</f_param2>
  <min_val>5.0000000000000003e-002</min_val>
  <max_val>1.</max_val>
  <min_val1>2.0000000000000000e-002</min_val1>
  <max_val1>1.</max_val1>
  <training_params>
    <train_method>BACKPROP</train_method>
    <dw_scale>1.0000000000000000e-003</dw_scale>
    <moment_scale>0.</moment_scale>
    <term_criteria>
      <epsilon>1.1920928955078125e-007</epsilon>
      <iterations>300</iterations></term_criteria></training_params>
  <input_scale>
    1.1858889331031066e+000 -6.9865799365620056e+000
    2.1968931338056663e+000 -6.7183084440650269e+000
    5.5782419795091753e-001 -2.1255758242567984e+000
    1.3283628112776364e+000 -1.5851796109576550e+000</input_scale>
  <output_scale>
    1.0526315789473684e+000 -5.2631578947368418e-002
    1.0526315789473684e+000 -5.2631578947368418e-002
    1.0526315789473684e+000 -5.2631578947368418e-002</output_scale>
  <inv_output_scale>
    9.4999999999999996e-001 5.0000000000000003e-002
    9.4999999999999996e-001 5.0000000000000003e-002
    9.4999999999999996e-001 5.0000000000000003e-002</inv_output_scale>
  <weights>
    <_>
      -2.2990567595673272e-001 -2.9025455317514376e-001
      1.4135068015317731e-001 -3.4057199880750572e-001
      3.0926493169980057e-001 3.2613346998266768e-001
      2.7114785710274791e-001 2.2880962250704492e-001
      9.5250489233415322e-002 -3.1413015596995036e-001
      -5.1513873072796157e-001 -3.3835731112178491e-001
      -7.9641148710818355e-001 -1.9194927203612124e-002
      -1.7977921967102681e-001 -7.1497137877386618e-001
      -3.5464571717404547e-001 -7.7142587182763289e-001
      -2.1761181852453071e-001 -2.5485845812765434e-001
      2.3236899800740818e-001 2.7102147715222824e-001
      2.5912642963801624e-001 -6.4793306375519888e-001
      2.3985299329330897e-001</_>
    <_>
      -9.4643818833604287e-001 7.5674404263739226e-001
      1.2201744375983958e+000 -8.3557922435249310e-001
      9.4571637584468987e-002 6.7858974992888188e-001
      -9.4091820228228518e-001 7.6496388364782975e-001
      1.0983064635906958e+000 1.1001824469446833e+000
      1.1805111949512613e-003 -1.0895655334813530e+000
      -6.0470258922855225e-001 -1.0877797588210592e+000
      -8.9787547277275226e-001 -6.2419697689565179e-001
      -7.4259808146324180e-001 2.7725396397487673e-001</_></weights></opencv_ml_ann_mlp>
</opencv_storage>
