<?xml version="1.0"?>
<opencv_storage>
<opencv_ml_svm>
  <format>3</format>
  <svmType>C_SVC</svmType>
  <kernel>
    <type>POLY</type>
    <degree>1.</degree>
    <gamma>20.</gamma>
    <coef0>1.</coef0></kernel>
  <C>1.</C>
  <term_criteria><epsilon>1.1920928955078125e-007</epsilon>
    <iterations>1000</iterations></term_criteria>
  <var_count>4</var_count>
  <class_count>3</class_count>
  <class_labels type_id="opencv-matrix">
    <rows>3</rows>
    <cols>1</cols>
    <dt>i</dt>
    <data>
      0 1 2</data></class_labels>
  <sv_total>15</sv_total>
  <support_vectors>
    <_>
      5.09999990e+000 3.29999995e+000 1.70000005e+000 5.00000000e-001</_>
    <_>
      4.80000019e+000 3.40000010e+000 1.89999998e+000 2.00000003e-001</_>
    <_>
      4.90000010e+000 2.40000010e+000 3.29999995e+000 1.</_>
    <_>
      6.19999981e+000 2.20000005e+000 4.50000000e+000 1.50000000e+000</_>
    <_>
      5.90000010e+000 3.20000005e+000 4.80000019e+000 1.79999995e+000</_>
    <_>
      6.30000019e+000 2.50000000e+000 4.90000010e+000 1.50000000e+000</_>
    <_>
      6.69999981e+000 3. 5. 1.70000005e+000</_>
    <_>
      6. 2.70000005e+000 5.09999990e+000 1.60000002e+000</_>
    <_>
      4.90000010e+000 2.50000000e+000 4.50000000e+000 1.70000005e+000</_>
    <_>
      6. 2.20000005e+000 5. 1.50000000e+000</_>
    <_>
      6.30000019e+000 2.70000005e+000 4.90000010e+000 1.79999995e+000</_>
    <_>
      6.19999981e+000 2.79999995e+000 4.80000019e+000 1.79999995e+000</_>
    <_>
      6.09999990e+000 3. 4.90000010e+000 1.79999995e+000</_>
    <_>
      7.19999981e+000 3. 5.80000019e+000 1.60000002e+000</_>
    <_>
      6.30000019e+000 2.79999995e+000 5.09999990e+000 1.50000000e+000</_></support_vectors>
  <decision_functions>
    <_>
      <sv_count>3</sv_count>
      <rho>-7.7328171747545416e-001</rho>
      <alpha>
        1.0946802107224995e-002 1.7026930567468287e-002
        -2.7973732674693278e-002</alpha>
      <index>
        0 1 2</index></_>
    <_>
      <sv_count>3</sv_count>
      <rho>-1.5072619838655843e+000</rho>
      <alpha>
        2.2139215410136681e-003 7.9702779907838573e-003
        -1.0184199531797526e-002</alpha>
      <index>
        0 1 8</index></_>
    <_>
      <sv_count>11</sv_count>
      <rho>-1.1696328616335627e+001</rho>
      <alpha>
        4.8583014428625576e-001 1. 1. 1. 1. -4.9613042293432291e-001
        -9.6020737928145317e-001 -1. -1. -2.9492342070480057e-002 -1.</alpha>
      <index>
        3 4 5 6 7 9 10 11 12 13 14</index></_></decision_functions></opencv_ml_svm>
</opencv_storage>
